Language model created by QuickLM on Thu Aug  5 18:24:29 EDT 2021
Copyright (c) 1996-2010 Carnegie Mellon University and Alexander I. Rudnicky

The model is in standard ARPA format, designed by Doug Paul while he was at MITRE.

The code that was used to produce this language model is available in Open Source.
Please visit http://www.speech.cs.cmu.edu/tools/ for more information

The (fixed) discount mass is 0.5. The backoffs are computed using the ratio method.
This model based on a corpus of 16 sentences and 26 words

\data\
ngram 1=26
ngram 2=41
ngram 3=37

\1-grams:
-1.0054 </s> -0.3010
-1.0054 <s> -0.2559
-1.4314 A -0.2846
-2.2095 CLEAR -0.2559
-2.2095 COW -0.2559
-2.2095 CREEPER -0.2559
-2.2095 DIAMONDS -0.2559
-1.5105 GIVE -0.2874
-2.2095 HORSE -0.2559
-2.2095 JUMP -0.2559
-1.5105 MAKE -0.2874
-1.5105 ME -0.2734
-2.2095 NIGHT -0.2559
-2.2095 PIG -0.2559
-2.2095 RAINY -0.2559
-2.2095 REGENERATION -0.2559
-1.5105 SPAWN -0.2846
-2.2095 STORM -0.2559
-2.2095 SUNNY -0.2559
-2.2095 SWORD -0.2559
-2.2095 THE -0.2983
-1.5105 TIME -0.2874
-2.2095 VELOCITY -0.2559
-2.2095 WEATHER -0.2559
-2.2095 WHAT'S -0.2983
-2.2095 ZOMBIE -0.2559

\2-grams:
-0.8062 <s> GIVE 0.0000
-0.8062 <s> MAKE 0.0000
-0.8062 <s> SPAWN 0.0000
-1.5051 <s> WHAT'S 0.0000
-1.0792 A COW 0.0000
-1.0792 A CREEPER 0.0000
-1.0792 A HORSE 0.0000
-1.0792 A PIG 0.0000
-1.0792 A SWORD 0.0000
-1.0792 A ZOMBIE 0.0000
-0.3010 CLEAR </s> -0.3010
-0.3010 COW </s> -0.3010
-0.3010 CREEPER </s> -0.3010
-0.3010 DIAMONDS </s> -0.3010
-0.3010 GIVE ME 0.0000
-0.3010 HORSE </s> -0.3010
-0.3010 JUMP </s> -0.3010
-0.3010 MAKE TIME 0.0000
-1.0000 ME A -0.2632
-1.0000 ME DIAMONDS 0.0000
-1.0000 ME JUMP 0.0000
-1.0000 ME REGENERATION 0.0000
-1.0000 ME VELOCITY 0.0000
-0.3010 NIGHT </s> -0.3010
-0.3010 PIG </s> -0.3010
-0.3010 RAINY </s> -0.3010
-0.3010 REGENERATION </s> -0.3010
-0.3010 SPAWN A -0.0669
-0.3010 STORM </s> -0.3010
-0.3010 SUNNY </s> -0.3010
-0.3010 SWORD </s> -0.3010
-0.3010 THE WEATHER 0.0000
-1.0000 TIME CLEAR 0.0000
-1.0000 TIME NIGHT 0.0000
-1.0000 TIME RAINY 0.0000
-1.0000 TIME STORM 0.0000
-1.0000 TIME SUNNY 0.0000
-0.3010 VELOCITY </s> -0.3010
-0.3010 WEATHER </s> -0.3010
-0.3010 WHAT'S THE 0.0000
-0.3010 ZOMBIE </s> -0.3010

\3-grams:
-0.3010 <s> GIVE ME
-0.3010 <s> MAKE TIME
-0.3010 <s> SPAWN A
-0.3010 <s> WHAT'S THE
-0.3010 A COW </s>
-0.3010 A CREEPER </s>
-0.3010 A HORSE </s>
-0.3010 A PIG </s>
-0.3010 A SWORD </s>
-0.3010 A ZOMBIE </s>
-1.0000 GIVE ME A
-1.0000 GIVE ME DIAMONDS
-1.0000 GIVE ME JUMP
-1.0000 GIVE ME REGENERATION
-1.0000 GIVE ME VELOCITY
-1.0000 MAKE TIME CLEAR
-1.0000 MAKE TIME NIGHT
-1.0000 MAKE TIME RAINY
-1.0000 MAKE TIME STORM
-1.0000 MAKE TIME SUNNY
-0.3010 ME A SWORD
-0.3010 ME DIAMONDS </s>
-0.3010 ME JUMP </s>
-0.3010 ME REGENERATION </s>
-0.3010 ME VELOCITY </s>
-1.0000 SPAWN A COW
-1.0000 SPAWN A CREEPER
-1.0000 SPAWN A HORSE
-1.0000 SPAWN A PIG
-1.0000 SPAWN A ZOMBIE
-0.3010 THE WEATHER </s>
-0.3010 TIME CLEAR </s>
-0.3010 TIME NIGHT </s>
-0.3010 TIME RAINY </s>
-0.3010 TIME STORM </s>
-0.3010 TIME SUNNY </s>
-0.3010 WHAT'S THE WEATHER

\end\